<?xml version="1.0"?>
<opencv_storage>
<cascade>
  <stageType>BOOST</stageType>
  <featureType>HAAR</featureType>
  <height>20</height>
  <width>20</width>
  <stageParams>
    <boostType>GAB</boostType>
    <minHitRate>9.9900001287460327e-01</minHitRate>
    <maxFalseAlarm>5.0000000745058060e-02</maxFalseAlarm>
    <weightTrimRate>9.4999999999999996e-01</weightTrimRate>
    <maxDepth>1</maxDepth>
    <maxWeakCount>100</maxWeakCount></stageParams>
  <featureParams>
    <maxCatCount>0</maxCatCount>
    <featSize>1</featSize>
    <mode>ALL</mode></featureParams>
  <stageNum>3</stageNum>
  <stages>
    <!-- stage 0 -->
    <_>
      <maxWeakCount>6</maxWeakCount>
      <stageThreshold>3.7244811654090881e-01</stageThreshold>
      <weakClassifiers>
        <_>
          <internalNodes>
            0 -1 15 1.6329655423760414e-02</internalNodes>
          <leafValues>
            -8.4615385532379150e-01 6.3572680950164795e-01</leafValues></_>
        <_>
          <internalNodes>
            0 -1 13 1.5827436000108719e-02</internalNodes>
          <leafValues>
            -6.3660818338394165e-01 8.3766371011734009e-01</leafValues></_>
        <_>
          <internalNodes>
            0 -1 7 -4.9997828900814056e-02</internalNodes>
          <leafValues>
            9.8048132658004761e-01 -4.7609943151473999e-01</leafValues></_>
        <_>
          <internalNodes>
            0 -1 6 -1.2046527117490768e-02</internalNodes>
          <leafValues>
            5.5757004022598267e-01 -9.8406082391738892e-01</leafValues></_>
        <_>
          <internalNodes>
            0 -1 11 -1.3350291177630424e-02</internalNodes>
          <leafValues>
            9.0002185106277466e-01 -5.8431094884872437e-01</leafValues></_>
        <_>
          <internalNodes>
            0 -1 17 5.1846057176589966e-03</internalNodes>
          <leafValues>
            -4.9634504318237305e-01 9.6121990680694580e-01</leafValues></_></weakClassifiers></_>
    <!-- stage 1 -->
    <_>
      <maxWeakCount>7</maxWeakCount>
      <stageThreshold>-7.7104699611663818e-01</stageThreshold>
      <weakClassifiers>
        <_>
          <internalNodes>
            0 -1 10 5.0563747063279152e-03</internalNodes>
          <leafValues>
            -5.6260436773300171e-01 8.4039902687072754e-01</leafValues></_>
        <_>
          <internalNodes>
            0 -1 8 1.8920928239822388e-02</internalNodes>
          <leafValues>
            -4.8719015717506409e-01 8.4181839227676392e-01</leafValues></_>
        <_>
          <internalNodes>
            0 -1 0 1.2747718021273613e-02</internalNodes>
          <leafValues>
            -9.5481574535369873e-01 5.0727176666259766e-01</leafValues></_>
        <_>
          <internalNodes>
            0 -1 2 8.7098674848675728e-03</internalNodes>
          <leafValues>
            -9.1842204332351685e-01 3.9993309974670410e-01</leafValues></_>
        <_>
          <internalNodes>
            0 -1 1 2.5150319561362267e-02</internalNodes>
          <leafValues>
            -9.5158445835113525e-01 3.7366756796836853e-01</leafValues></_>
        <_>
          <internalNodes>
            0 -1 12 -2.1530609577894211e-02</internalNodes>
          <leafValues>
            9.9662709236145020e-01 -4.8633062839508057e-01</leafValues></_>
        <_>
          <internalNodes>
            0 -1 9 6.2532899901270866e-03</internalNodes>
          <leafValues>
            -5.3666454553604126e-01 9.6668088436126709e-01</leafValues></_></weakClassifiers></_>
    <!-- stage 2 -->
    <_>
      <maxWeakCount>6</maxWeakCount>
      <stageThreshold>3.9957529306411743e-01</stageThreshold>
      <weakClassifiers>
        <_>
          <internalNodes>
            0 -1 14 5.5748997256159782e-03</internalNodes>
          <leafValues>
            -4.9837133288383484e-01 7.9274612665176392e-01</leafValues></_>
        <_>
          <internalNodes>
            0 -1 3 3.5965353163192049e-05</internalNodes>
          <leafValues>
            4.4413796067237854e-01 -9.4605439901351929e-01</leafValues></_>
        <_>
          <internalNodes>
            0 -1 3 -3.4287466405658051e-05</internalNodes>
          <leafValues>
            -1. 4.1073760390281677e-01</leafValues></_>
        <_>
          <internalNodes>
            0 -1 16 6.0291294939815998e-03</internalNodes>
          <leafValues>
            -5.4948884248733521e-01 7.3999208211898804e-01</leafValues></_>
        <_>
          <internalNodes>
            0 -1 4 2.5428656488656998e-02</internalNodes>
          <leafValues>
            -9.2312771081924438e-01 4.4345676898956299e-01</leafValues></_>
        <_>
          <internalNodes>
            0 -1 5 -4.0473580156685784e-05</internalNodes>
          <leafValues>
            -1. 2.4817804992198944e-01</leafValues></_></weakClassifiers></_></stages>
  <features>
    <_>
      <rects>
        <_>
          0 0 12 20 -1.</_>
        <_>
          3 0 6 20 2.</_></rects>
      <tilted>0</tilted></_>
    <_>
      <rects>
        <_>
          0 0 20 6 -1.</_>
        <_>
          5 0 10 6 2.</_></rects>
      <tilted>0</tilted></_>
    <_>
      <rects>
        <_>
          0 0 9 6 -1.</_>
        <_>
          0 3 9 3 2.</_></rects>
      <tilted>0</tilted></_>
    <_>
      <rects>
        <_>
          0 1 1 2 -1.</_>
        <_>
          0 2 1 1 2.</_></rects>
      <tilted>0</tilted></_>
    <_>
      <rects>
        <_>
          0 15 20 5 -1.</_>
        <_>
          5 15 10 5 2.</_></rects>
      <tilted>0</tilted></_>
    <_>
      <rects>
        <_>
          1 0 2 2 -1.</_>
        <_>
          1 1 2 1 2.</_></rects>
      <tilted>0</tilted></_>
    <_>
      <rects>
        <_>
          1 14 19 6 -1.</_>
        <_>
          1 17 19 3 2.</_></rects>
      <tilted>0</tilted></_>
    <_>
      <rects>
        <_>
          5 2 13 3 -1.</_>
        <_>
          4 3 13 1 3.</_></rects>
      <tilted>1</tilted></_>
    <_>
      <rects>
        <_>
          5 11 3 3 -1.</_>
        <_>
          6 12 1 1 9.</_></rects>
      <tilted>0</tilted></_>
    <_>
      <rects>
        <_>
          6 9 1 3 -1.</_>
        <_>
          6 10 1 1 3.</_></rects>
      <tilted>0</tilted></_>
    <_>
      <rects>
        <_>
          7 6 3 1 -1.</_>
        <_>
          8 6 1 1 3.</_></rects>
      <tilted>0</tilted></_>
    <_>
      <rects>
        <_>
          8 10 8 2 -1.</_>
        <_>
          8 10 4 1 2.</_>
        <_>
          12 11 4 1 2.</_></rects>
      <tilted>0</tilted></_>
    <_>
      <rects>
        <_>
          9 4 3 4 -1.</_>
        <_>
          10 4 1 4 3.</_></rects>
      <tilted>0</tilted></_>
    <_>
      <rects>
        <_>
          9 7 3 3 -1.</_>
        <_>
          10 8 1 1 9.</_></rects>
      <tilted>0</tilted></_>
    <_>
      <rects>
        <_>
          10 13 3 1 -1.</_>
        <_>
          11 13 1 1 3.</_></rects>
      <tilted>0</tilted></_>
    <_>
      <rects>
        <_>
          13 0 7 6 -1.</_>
        <_>
          13 3 7 3 2.</_></rects>
      <tilted>0</tilted></_>
    <_>
      <rects>
        <_>
          13 6 1 3 -1.</_>
        <_>
          13 7 1 1 3.</_></rects>
      <tilted>0</tilted></_>
    <_>
      <rects>
        <_>
          14 8 1 3 -1.</_>
        <_>
          14 9 1 1 3.</_></rects>
      <tilted>0</tilted></_></features></cascade>
</opencv_storage>
