<?xml version="1.0"?>
<opencv_storage>
<stage1>
  <maxWeakCount>7</maxWeakCount>
  <stageThreshold>-7.7104699611663818e-01</stageThreshold>
  <weakClassifiers>
    <_>
      <internalNodes>
        0 -1 68325 5.0563747063279152e-03</internalNodes>
      <leafValues>
        -5.6260436773300171e-01 8.4039902687072754e-01</leafValues></_>
    <_>
      <internalNodes>
        0 -1 54129 1.8920928239822388e-02</internalNodes>
      <leafValues>
        -4.8719015717506409e-01 8.4181839227676392e-01</leafValues></_>
    <_>
      <internalNodes>
        0 -1 290 1.2747718021273613e-02</internalNodes>
      <leafValues>
        -9.5481574535369873e-01 5.0727176666259766e-01</leafValues></_>
    <_>
      <internalNodes>
        0 -1 675 8.7098674848675728e-03</internalNodes>
      <leafValues>
        -9.1842204332351685e-01 3.9993309974670410e-01</leafValues></_>
    <_>
      <internalNodes>
        0 -1 432 2.5150319561362267e-02</internalNodes>
      <leafValues>
        -9.5158445835113525e-01 3.7366756796836853e-01</leafValues></_>
    <_>
      <internalNodes>
        0 -1 82625 -2.1530609577894211e-02</internalNodes>
      <leafValues>
        9.9662709236145020e-01 -4.8633062839508057e-01</leafValues></_>
    <_>
      <internalNodes>
        0 -1 61781 6.2532899901270866e-03</internalNodes>
      <leafValues>
        -5.3666454553604126e-01 9.6668088436126709e-01</leafValues></_></weakClassifiers></stage1>
</opencv_storage>
