<?xml version="1.0"?>
<opencv_storage>
<cascade>
  <stageType>BOOST</stageType>
  <featureType>HAAR</featureType>
  <height>20</height>
  <width>20</width>
  <stageParams>
    <boostType>GAB</boostType>
    <minHitRate>9.9900001287460327e-01</minHitRate>
    <maxFalseAlarm>5.0000000745058060e-02</maxFalseAlarm>
    <weightTrimRate>9.4999999999999996e-01</weightTrimRate>
    <maxDepth>1</maxDepth>
    <maxWeakCount>100</maxWeakCount></stageParams>
  <featureParams>
    <maxCatCount>0</maxCatCount>
    <featSize>1</featSize>
    <mode>ALL</mode></featureParams>
  <stageNum>3</stageNum>
  <stages>
    <!-- stage 0 -->
    <_>
      <maxWeakCount>6</maxWeakCount>
      <stageThreshold>-9.9639153480529785e-01</stageThreshold>
      <weakClassifiers>
        <_>
          <internalNodes>
            0 -1 11 4.0793046355247498e-03</internalNodes>
          <leafValues>
            -5.9802305698394775e-01 9.2366409301757812e-01</leafValues></_>
        <_>
          <internalNodes>
            0 -1 10 2.2343897726386786e-03</internalNodes>
          <leafValues>
            -6.0122358798980713e-01 8.3610725402832031e-01</leafValues></_>
        <_>
          <internalNodes>
            0 -1 0 5.5318359285593033e-02</internalNodes>
          <leafValues>
            -9.0668886899948120e-01 5.4668867588043213e-01</leafValues></_>
        <_>
          <internalNodes>
            0 -1 13 -2.3345991969108582e-02</internalNodes>
          <leafValues>
            9.8328799009323120e-01 -5.2530580759048462e-01</leafValues></_>
        <_>
          <internalNodes>
            0 -1 3 -2.1732451394200325e-02</internalNodes>
          <leafValues>
            9.8687654733657837e-01 -4.7578403353691101e-01</leafValues></_>
        <_>
          <internalNodes>
            0 -1 2 -2.5707702661748044e-05</internalNodes>
          <leafValues>
            -1. 6.0204005241394043e-01</leafValues></_></weakClassifiers></_>
    <!-- stage 1 -->
    <_>
      <maxWeakCount>5</maxWeakCount>
      <stageThreshold>2.6401737332344055e-01</stageThreshold>
      <weakClassifiers>
        <_>
          <internalNodes>
            0 -1 2 3.7888752558501437e-05</internalNodes>
          <leafValues>
            5.9235668182373047e-01 -1.</leafValues></_>
        <_>
          <internalNodes>
            0 -1 7 4.7030490823090076e-03</internalNodes>
          <leafValues>
            -6.7553138732910156e-01 8.7222200632095337e-01</leafValues></_>
        <_>
          <internalNodes>
            0 -1 9 1.6303759068250656e-02</internalNodes>
          <leafValues>
            -5.9652853012084961e-01 8.5340112447738647e-01</leafValues></_>
        <_>
          <internalNodes>
            0 -1 15 -4.0600949432700872e-05</internalNodes>
          <leafValues>
            -9.9772459268569946e-01 4.9420374631881714e-01</leafValues></_>
        <_>
          <internalNodes>
            0 -1 1 2.8324611485004425e-03</internalNodes>
          <leafValues>
            -8.7858617305755615e-01 4.4951683282852173e-01</leafValues></_></weakClassifiers></_>
    <!-- stage 2 -->
    <_>
      <maxWeakCount>7</maxWeakCount>
      <stageThreshold>-5.7299035787582397e-01</stageThreshold>
      <weakClassifiers>
        <_>
          <internalNodes>
            0 -1 5 1.8720893189311028e-02</internalNodes>
          <leafValues>
            -5.1007753610610962e-01 9.2676055431365967e-01</leafValues></_>
        <_>
          <internalNodes>
            0 -1 8 -4.1525354608893394e-03</internalNodes>
          <leafValues>
            9.9566841125488281e-01 -4.5414873957633972e-01</leafValues></_>
        <_>
          <internalNodes>
            0 -1 14 1.8189342692494392e-02</internalNodes>
          <leafValues>
            -9.0118539333343506e-01 5.9300571680068970e-01</leafValues></_>
        <_>
          <internalNodes>
            0 -1 12 4.6459240838885307e-03</internalNodes>
          <leafValues>
            -5.7153534889221191e-01 9.9716800451278687e-01</leafValues></_>
        <_>
          <internalNodes>
            0 -1 4 2.0460519939661026e-02</internalNodes>
          <leafValues>
            6.0030525922775269e-01 -9.3747591972351074e-01</leafValues></_>
        <_>
          <internalNodes>
            0 -1 6 1.7241984605789185e-02</internalNodes>
          <leafValues>
            -6.0906618833541870e-01 8.1215351819992065e-01</leafValues></_>
        <_>
          <internalNodes>
            0 -1 16 2.0976831365260296e-05</internalNodes>
          <leafValues>
            4.0495735406875610e-01 -1.</leafValues></_></weakClassifiers></_></stages>
  <features>
    <_>
      <rects>
        <_>
          0 0 20 20 -1.</_>
        <_>
          5 0 10 20 2.</_></rects>
      <tilted>0</tilted></_>
    <_>
      <rects>
        <_>
          0 12 20 8 -1.</_>
        <_>
          0 14 20 4 2.</_></rects>
      <tilted>0</tilted></_>
    <_>
      <rects>
        <_>
          0 18 1 2 -1.</_>
        <_>
          0 19 1 1 2.</_></rects>
      <tilted>0</tilted></_>
    <_>
      <rects>
        <_>
          2 8 12 2 -1.</_>
        <_>
          2 8 6 1 2.</_>
        <_>
          8 9 6 1 2.</_></rects>
      <tilted>0</tilted></_>
    <_>
      <rects>
        <_>
          3 6 8 9 -1.</_>
        <_>
          7 6 4 9 2.</_></rects>
      <tilted>0</tilted></_>
    <_>
      <rects>
        <_>
          5 11 3 3 -1.</_>
        <_>
          6 12 1 1 9.</_></rects>
      <tilted>0</tilted></_>
    <_>
      <rects>
        <_>
          7 5 3 3 -1.</_>
        <_>
          8 6 1 1 9.</_></rects>
      <tilted>0</tilted></_>
    <_>
      <rects>
        <_>
          7 6 3 1 -1.</_>
        <_>
          8 6 1 1 3.</_></rects>
      <tilted>0</tilted></_>
    <_>
      <rects>
        <_>
          7 7 2 2 -1.</_>
        <_>
          7 7 1 1 2.</_>
        <_>
          8 8 1 1 2.</_></rects>
      <tilted>0</tilted></_>
    <_>
      <rects>
        <_>
          9 7 3 3 -1.</_>
        <_>
          10 8 1 1 9.</_></rects>
      <tilted>0</tilted></_>
    <_>
      <rects>
        <_>
          9 10 1 2 -1.</_>
        <_>
          9 11 1 1 2.</_></rects>
      <tilted>0</tilted></_>
    <_>
      <rects>
        <_>
          10 13 3 1 -1.</_>
        <_>
          11 13 1 1 3.</_></rects>
      <tilted>0</tilted></_>
    <_>
      <rects>
        <_>
          11 11 2 2 -1.</_>
        <_>
          11 11 1 1 2.</_>
        <_>
          12 12 1 1 2.</_></rects>
      <tilted>0</tilted></_>
    <_>
      <rects>
        <_>
          12 7 3 3 -1.</_>
        <_>
          13 8 1 1 9.</_></rects>
      <tilted>0</tilted></_>
    <_>
      <rects>
        <_>
          13 0 7 20 -1.</_>
        <_>
          13 5 7 10 2.</_></rects>
      <tilted>0</tilted></_>
    <_>
      <rects>
        <_>
          17 0 2 2 -1.</_>
        <_>
          17 1 2 1 2.</_></rects>
      <tilted>0</tilted></_>
    <_>
      <rects>
        <_>
          19 0 1 2 -1.</_>
        <_>
          19 1 1 1 2.</_></rects>
      <tilted>0</tilted></_></features></cascade>
</opencv_storage>
