<?xml version="1.0"?>
<opencv_storage>
<stage2>
  <maxWeakCount>7</maxWeakCount>
  <stageThreshold>-5.7299035787582397e-01</stageThreshold>
  <weakClassifiers>
    <_>
      <internalNodes>
        0 -1 54129 1.8720893189311028e-02</internalNodes>
      <leafValues>
        -5.1007753610610962e-01 9.2676055431365967e-01</leafValues></_>
    <_>
      <internalNodes>
        0 -1 68879 -4.1525354608893394e-03</internalNodes>
      <leafValues>
        9.9566841125488281e-01 -4.5414873957633972e-01</leafValues></_>
    <_>
      <internalNodes>
        0 -1 106071 1.8189342692494392e-02</internalNodes>
      <leafValues>
        -9.0118539333343506e-01 5.9300571680068970e-01</leafValues></_>
    <_>
      <internalNodes>
        0 -1 98823 4.6459240838885307e-03</internalNodes>
      <leafValues>
        -5.7153534889221191e-01 9.9716800451278687e-01</leafValues></_>
    <_>
      <internalNodes>
        0 -1 33834 2.0460519939661026e-02</internalNodes>
      <leafValues>
        6.0030525922775269e-01 -9.3747591972351074e-01</leafValues></_>
    <_>
      <internalNodes>
        0 -1 67737 1.7241984605789185e-02</internalNodes>
      <leafValues>
        -6.0906618833541870e-01 8.1215351819992065e-01</leafValues></_>
    <_>
      <internalNodes>
        0 -1 124804 2.0976831365260296e-05</internalNodes>
      <leafValues>
        4.0495735406875610e-01 -1.</leafValues></_></weakClassifiers></stage2>
</opencv_storage>
